34 100
<unk> -0.8072749718205512 -0.4898666924029303 -0.072377999380296 -0.19995962335416367 -0.18679612267016746 0.6575500707369721 0.5556139260333258 -0.6095561209480277 -0.5157480333002036 -0.3240678387268421 0.08998989571234499 0.16967963348771783 0.6869517309614225 0.5585226003415261 -0.5544820435244139 0.08631822178597617 -0.9565139441879884 -0.8047241881767002 -0.35672865407163545 -0.7775044215313516 0.09360252283798054 -0.08515632926181882 -0.32405895561553677 -0.05973012877757126 0.28024130818549975 -0.2467976121258006 -0.3620744753284823 -0.4024398439777939 0.2796925649517181 0.7783126440957745 0.4584347110548461 0.8515187448187006 -0.7034703378919626 0.8668407027364293 -0.1302023004123331 -0.287610115484092 0.420515865243729 -0.3695499769320712 0.07550599208251788 0.6873566510651269 -0.1236184626139063 -0.4175561925622703 0.7601567036436326 0.7552517761527473 0.4507018674448439 0.7668664767480388 -0.13655069162453998 -0.3222748165056102 0.8358142941650138 0.9632097479645605 0.746648746161238 0.262144686108468 -0.6535467183763746 0.43764339765437504 -0.8157400494758467 0.680816841882057 -0.4663381879745472 0.6343030225390281 0.0158239136229307 0.1651764636553515 0.42390417214957127 0.2286473853112558 0.754761965922221 -0.7796966287964243 0.11170131979399425 0.39634944563545055 -0.490943843515259 -0.42951644476052137 -0.6861680194617629 0.05326426741225257 -0.9129320276335143 0.3628665813423078 0.21363955885333932 -0.10435491983299859 -0.2045630591397856 0.0031777072805736274 0.6677334158496374 0.4404391377203907 0.3066159517674092 -0.02239575113293521 -0.5700982863276113 0.9816353906141845 -0.9690485997898147 0.9156586441807611 0.2070244066080631 -0.38902610350207456 -0.5794265804684762 0.7431942260286776 -0.7729540723616711 -0.13670392503429987 0.15988328259854181 -0.18437927494134207 0.4664006270766384 0.12479548216276251 -0.7642372975899007 -0.6768996844044216 -0.889909518142771 -0.931448326863883 -0.506339528071717 0.4813708049617137
the -0.18211483636185843 -0.11186415589765056 -0.013633042151254783 -0.04764929371171351 -0.039842005008069406 0.1544761073443846 0.1250728411808671 -0.1404061168578752 -0.11602691121488459 -0.07171863057668376 0.01950122976049271 0.03570296716297662 0.1512185030329096 0.12720200319655484 -0.13001950215706778 0.023547009609193544 -0.21905919052186262 -0.18721678327095806 -0.08146337438298182 -0.1809712562427324 0.016730700331940414 -0.02463604998344542 -0.07667169455831896 -0.018669317443785884 0.06362467339161176 -0.057744652605517546 -0.07809944756078668 -0.09534726862513523 0.06651043527878923 0.17459647405401776 0.10487388902200903 0.19390868776102146 -0.1569149165573072 0.19478908270193138 -0.03486098491488095 -0.061771005536780665 0.09575713746504948 -0.08677139881463154 0.01997518450873813 0.1598572387042211 -0.03250706073792694 -0.09799983153876432 0.1740716094226946 0.1720865371270998 0.10129408736358267 0.1767439359847981 -0.03572006779688332 -0.07600269146857104 0.18996517604173727 0.21706673465625678 0.17118130109562954 0.05584044443715453 -0.14481195499717842 0.1008441364185528 -0.18146407589653665 0.15948368688334263 -0.10545109497155652 0.14917081234526314 0.0008836674952036993 0.03508279510385792 0.10095572979466154 0.05675278873988538 0.16696862121998177 -0.1791844024297395 0.029016528679378987 0.0947608886035453 -0.1112559538983052 -0.1009522984447628 -0.15571544769970036 0.009237742865678543 -0.20818114000202778 0.08303764039535272 0.04543506408059761 -0.018955038572027634 -0.0416675230882399 0.0022066376824695414 0.15705547919853668 0.10504518585992835 0.07357051252978958 -0.007226205315564422 -0.1285024827041887 0.22338083620845584 -0.22155260677640004 0.20923092175646635 0.0494843579523613 -0.09304668591312935 -0.13384121016878248 0.16511176026090962 -0.17235099906112247 -0.028949296870060447 0.031186043249590765 -0.046293564829432254 0.1044353766773743 0.026447888214913694 -0.17901418731313265 -0.15193898006631346 -0.2016819820095217 -0.21671566370331294 -0.12031318397052217 0.1058798826839503
and -0.10144220395521002 -0.06477893257667666 -0.005586033567401948 -0.02489309972777964 -0.02562742417226687 0.08006888506531636 0.07610120602898152 -0.07998123111798564 -0.06343824212342565 -0.03863739274997859 0.006436546312384799 0.016588818429141075 0.08874061438619887 0.07381967491653478 -0.06902963755151602 0.014303741543118682 -0.12526707240170903 -0.10146601052252906 -0.0437535886002865 -0.09524487581696771 0.011315734476683593 -0.012404812349728771 -0.04100665755060662 -0.008435408442315563 0.03673645546359807 -0.03500908506385696 -0.04454052905354472 -0.04844693328963217 0.03767853211131031 0.10181145121511424 0.05570718249041503 0.10930855556352821 -0.08803818891240459 0.11339073418714911 -0.017504544098675145 -0.032978707624837844 0.050625187414468836 -0.043313813429093344 0.00830552919636895 0.08698457812521096 -0.010930146047525272 -0.05087016230609716 0.1009559444493414 0.09636959675116676 0.05489488739633329 0.10051769870967775 -0.015723682945304063 -0.04577972437382508 0.10897752833059385 0.1272788594042348 0.09514366642913245 0.03481924782949242 -0.08809910972960862 0.0546098824856082 -0.1076789417226744 0.08509480034092912 -0.06390014619058329 0.08638692944658129 -0.0021485460613939198 0.022753426178181126 0.05444620414132355 0.0315556026747891 0.09393890533361937 -0.10229794714496417 0.016736246278336166 0.04753793155055496 -0.06584629106539495 -0.05197976681684662 -0.09066192993226074 0.006471725612444853 -0.11613671550861573 0.044850369086016924 0.025457275613316795 -0.011560702493704614 -0.021200961834314875 0.003889689875559245 0.08636712690155611 0.060631903759327054 0.034625626012184677 -0.0017567305887059798 -0.06999894581989981 0.12578259988698395 -0.12604068294054355 0.11404414484300834 0.028565942843057527 -0.0541329828208216 -0.06961906458999473 0.09491840415368197 -0.10222977456256616 -0.017360860100944765 0.017592707295675664 -0.027443231719897994 0.05619234567684802 0.017430709842942083 -0.10218786982071176 -0.08282673945043832 -0.11273060233964657 -0.11802582253676593 -0.06597714054565401 0.06366358088334036
in -0.09051538348099408 -0.06144675525034418 -0.0033981135290515477 -0.02015132984036897 -0.021313135825603752 0.08057632186957404 0.0666606667327703 -0.06965713694928612 -0.05865219305660856 -0.033180777534807616 0.005940607957990335 0.020288460436453243 0.07830302037379953 0.07018768542878083 -0.06459122584389702 0.00791078199437483 -0.11278252038262838 -0.089898638090686 -0.04344201991462561 -0.08874889911393971 0.009557398417002988 -0.011770552911907815 -0.03442716718291946 -0.004707550208816539 0.029507145901643172 -0.030991037053593174 -0.03713797115775993 -0.0496011745742915 0.036324390736351825 0.09506653873788638 0.05383601137643963 0.10160665261918143 -0.08423207615417491 0.10214197876029817 -0.01906576220760364 -0.029168132594741217 0.05422199496854744 -0.04417423032614428 0.010548900567704916 0.07683044134675321 -0.014146096333032534 -0.050344473548159255 0.08763058971384782 0.0833760454640599 0.04966314263641008 0.08536266812048085 -0.014590553740577585 -0.03868368425208093 0.09482923851502179 0.11231363054889411 0.08868591434492058 0.027499207397372407 -0.07212012840957836 0.05060830395669662 -0.09982608790337474 0.08012608920020059 -0.05739187703311972 0.06949977153473806 -0.0024411083170121336 0.022780748421475237 0.04516853322289593 0.02597203563260322 0.08808866069808538 -0.0897121133836926 0.014226628178609643 0.044181267381826 -0.062165162988541106 -0.0477469401462484 -0.08462678685519764 0.004070111152064782 -0.10222530841693978 0.04193524393541888 0.02464233417195881 -0.012898570759200543 -0.02027960042904487 0.00022978255706203066 0.08129922499787523 0.05598976186535925 0.03094122730041998 0.001760950427484996 -0.06853995948586304 0.11621975909436198 -0.11360673404843945 0.1093541831771261 0.029226724141497303 -0.05027327824799955 -0.06797105685154975 0.08250997960360738 -0.092305383232823 -0.01709267337259631 0.015328387479787892 -0.0234186983183544 0.05059173630445665 0.015377924645789617 -0.09362238748301406 -0.08046362270431234 -0.10440322648322362 -0.11056755234690548 -0.06354213302155864 0.05145776370352859
to -0.0938213059302602 -0.05580888603874159 -0.005045821551619749 -0.024330273004290436 -0.023258299052411256 0.07252692887421404 0.06178029626937742 -0.06324286134455359 -0.05793066444395886 -0.0385980655580849 0.009454315579849567 0.02174077532914189 0.07236935006302862 0.06417795786794749 -0.0597432229533884 0.012882340467974896 -0.11135736722911253 -0.0912381382219362 -0.04398574737397343 -0.09155844061273784 0.011618095258549028 -0.005456675453611074 -0.03524879747171745 -0.007771751817506845 0.028455842600609633 -0.023883687476924733 -0.03787671053188053 -0.04030385912263363 0.031193787374285395 0.08334952162158586 0.04945065584156549 0.09368941529473875 -0.08208218028117664 0.0919177953122451 -0.014770560794565053 -0.028016950654190288 0.04671904624304775 -0.044678465690194014 0.0069082254995776705 0.07734442598941767 -0.009367031469454256 -0.0455235772132029 0.08702849100273204 0.08784331922052822 0.05172383174671338 0.08262360009700985 -0.011498059777487572 -0.03102788684194632 0.09802740469955813 0.10530126445857799 0.08060078044230387 0.027446354178905646 -0.07627779831448173 0.050185338180674256 -0.09603947432483363 0.07630218156945134 -0.054422410158743814 0.07524673700861817 0.0028660455902786114 0.022481099773445538 0.0515254588645105 0.030651081567552325 0.08897740430435765 -0.08456557785084567 0.008189977874551184 0.03966017957621794 -0.058214198378059814 -0.04440995200652225 -0.08120168329929976 0.005839233473765871 -0.10122032368505006 0.043398545652049814 0.0218688389029738 -0.016313761181147184 -0.025523460062612115 -0.0011670332031992487 0.07750407880132086 0.047271789030188284 0.034290850697794896 0.0012769623295808736 -0.06665220972561162 0.11113682394298569 -0.10674237692564699 0.10237381406942131 0.025776593430684978 -0.044298995613376815 -0.06949921061877166 0.08780869367599178 -0.0910167250404055 -0.018734241271967076 0.013412708863690106 -0.024565144981807476 0.050177559301595 0.017463519298654376 -0.08550088199455932 -0.0739326348032152 -0.1020932616125843 -0.09912281784203605 -0.0591246951404663 0.049958805468131404
<bol> -0.062095210884555406 -0.03890768957804337 -0.010230031600802022 -0.015903449964559314 -0.010823341028725612 0.04480141644654418 0.037982218638074376 -0.04568019757616175 -0.03413779773002968 -0.027623528306762127 0.01030647449239904 0.00869548491559727 0.047590086825410854 0.04534649822624191 -0.039045767321755624 0.007470337589520423 -0.07179778174388887 -0.0620913812796073 -0.031610249658602214 -0.061924582645667976 0.00228581243166267 -0.003784497781123365 -0.028751717450140393 0.00016254814638196445 0.018774102686002544 -0.016283210093473208 -0.02481743818513042 -0.03151787429096681 0.01807698508860453 0.059857336331248547 0.03338919587388146 0.06213792651263342 -0.05277995179233704 0.06659602858481567 -0.009128167523177636 -0.024324449105245984 0.03282440517712292 -0.02850567454868287 0.0022318967681812744 0.05132963380643987 -0.009450598901958531 -0.03316821766756296 0.053352617240285206 0.060555775428777346 0.0384771621542617 0.059852899272411386 -0.010372026284527545 -0.02047952295561284 0.059730487598850676 0.0770112962261984 0.05114318123178875 0.018695771961903168 -0.04977215259681836 0.03509576757633066 -0.05737513322471011 0.04819913996082393 -0.031241177164270117 0.04669232859219772 0.0011465365249522283 0.014229064565734764 0.034252637420545066 0.01744364654524497 0.0559734654416779 -0.05387304013934655 0.0035875480788603586 0.032073090352521115 -0.03325353275623463 -0.03252605227527194 -0.055364100189034586 -0.0008300837403938944 -0.07222293719673772 0.02306341656219469 0.016282611289908572 -0.0029870155439651104 -0.016474360042552944 0.0008043619735997293 0.04795407321061759 0.03689637844500221 0.02636871450103503 -0.006461021147567348 -0.03997383954587212 0.07344151785633084 -0.06844697050989519 0.06628667707359119 0.0179665739300561 -0.026494053402883633 -0.03982942502864142 0.05466218118919081 -0.05598026360557463 -0.009809271652199117 0.008917738389136422 -0.011931714815375647 0.03447090242853039 0.0049287643472415614 -0.05410823591185349 -0.045764235700388824 -0.06715312252785725 -0.06737875161315278 -0.04074063371524325 0.03607402272014153
<eol> -0.04791114091160868 -0.03273965129252946 -0.0074676953368143255 -0.008722664177636154 -0.011437196989083957 0.04350193409634662 0.03186538953358121 -0.03755215155612522 -0.02788800743405791 -0.022713711233744625 0.005966927818295535 0.015351330839329169 0.04035579550750518 0.03923924533348989 -0.031831768742921034 0.0019743754237974004 -0.05814178893867711 -0.05076986610733691 -0.0239746009220652 -0.04968415036177375 0.006137312352496734 -0.007999336073659607 -0.019361709194593686 -0.007945534065898818 0.021296629316533203 -0.013165253029336518 -0.025191061677016215 -0.02221084078328995 0.015414252893146803 0.04500215166242251 0.024933279786276727 0.05456201530271559 -0.04163112230887926 0.05573953002021746 -0.011811469169303666 -0.020354543535308342 0.026227897185056148 -0.019209526116688854 0.0008562372035938491 0.040897897117152866 -0.004929061186413414 -0.029052282793115124 0.0512937439058341 0.04707714319582347 0.024662728358723494 0.04534785609986473 -0.012715714838670896 -0.02364526962376426 0.049551119230088106 0.06467667492641745 0.04435699619110409 0.02040072774015872 -0.04112156534663555 0.03154084817980448 -0.051649024809721486 0.04039746622986003 -0.02947862867000398 0.04020174694473277 -0.003701980202439923 0.012652456536698532 0.024279808243616325 0.01727104466944073 0.049102402370119314 -0.04531440876734841 0.008961350452048109 0.025096134547132186 -0.02807689194784593 -0.02630251190989282 -0.04447980576435045 0.002424259656915996 -0.05526452733294466 0.018222705539766633 0.012457970461184575 -0.00807947319454577 -0.016805779606403438 0.0016688806575296386 0.039032869246947016 0.025450869088942864 0.021550382571573216 -0.0022292814373619818 -0.03510208909253256 0.06009468206754379 -0.05689174725254698 0.05974541606090031 0.009022130696404307 -0.02228931684723689 -0.03762163380510096 0.04819269115344272 -0.05036612253504832 -0.0059110610007499335 0.009884567317508678 -0.007615788482780034 0.03260420391535088 0.003171264444908816 -0.05289927009737324 -0.04052406683102334 -0.05585540375197503 -0.06329178021312275 -0.034649062323242635 0.02938463133373694
of -0.09373992619286457 -0.05422364253940731 -0.004475122649591673 -0.02064370019692704 -0.025297501451733994 0.07751341358235324 0.06729658834893874 -0.0655932777906326 -0.058804916603763545 -0.03935001572280875 0.007403958800682799 0.015951436728540474 0.07198422596518929 0.0578539793695799 -0.05901563429797818 0.014603863127551764 -0.10539394227536748 -0.08944524708277336 -0.04239180617227358 -0.08652987936474717 0.007921956662702604 -0.012910270230314673 -0.04090587687351405 -0.007809461323943656 0.02918021938770952 -0.03050350395482759 -0.04021524174666219 -0.048434307598934696 0.03491464682141051 0.0911319506896211 0.05123558467360849 0.09761018950533136 -0.08352404378909038 0.09461589038368858 -0.014946134035912996 -0.028544718843775074 0.04961299737545481 -0.03825027319209117 0.007516942981809847 0.07626302710805988 -0.01596363631252009 -0.04186603547901684 0.08373247567017567 0.08630976582638544 0.053667965395380074 0.09100453797942169 -0.020041390999999947 -0.03180327837691769 0.09381150878081448 0.10917708625380503 0.08409654338345954 0.028476065729486594 -0.07215804112075269 0.049074878605368966 -0.08852456648717914 0.07574084391844255 -0.0537904309756932 0.0700519961393944 -0.0003604475170889907 0.017634578950140617 0.04859078718380889 0.02071133718349974 0.08783094205534706 -0.0859169929862597 0.008561442616113248 0.04688404899278082 -0.05317807693902177 -0.050920718028279514 -0.0734210171307449 0.0033464832710508427 -0.10318034068237049 0.04408296952164619 0.026934148396503613 -0.011157249926234826 -0.02411847653443313 0.0026194492330146955 0.07239107486260886 0.0527197884638776 0.031812764971166946 -0.007490495331238864 -0.06404717990616293 0.10698049831264163 -0.11249165872729028 0.1065058031183194 0.02439398829480626 -0.043236613234236713 -0.06722995814349313 0.08639454054458101 -0.0914663292324523 -0.01941641417046261 0.013147454819111276 -0.02079968471913786 0.04882976185850356 0.015093917490445884 -0.08534048834091565 -0.07763266681777511 -0.09529578249452533 -0.1012162244008303 -0.05970758513056122 0.0538800215794911
said -0.05030128885791844 -0.026547651968283646 -0.00013517323698167738 -0.0075302327060694065 -0.007189055226092049 0.04088194577983213 0.03546118122847997 -0.030134034052994613 -0.02903969828832942 -0.019728794505643903 0.008116235244247625 0.014588054094281796 0.038348085819059206 0.031592051323841776 -0.03196345643059299 0.0007612472370719721 -0.05464100686292412 -0.049106359475020074 -0.025106983747307375 -0.04488022336714526 0.010140858325361655 -0.0030491550043232935 -0.013603133755149733 -0.0030571633477216517 0.014971962010285673 -0.011317645344624696 -0.018415520000939517 -0.025992221341949825 0.01191019192197757 0.046383471000138315 0.028141134034669012 0.04896193660482058 -0.04231861720950576 0.05405505464999993 -0.003635866425010585 -0.014211062918120309 0.02652797036768627 -0.024271360441031127 0.002215481897576504 0.037085868457662374 -0.007633461992035448 -0.01901224134807016 0.04276489625741313 0.041175864740723725 0.02825886123142486 0.04805097391906474 -0.007902497861215758 -0.016697795621812225 0.04584029900881042 0.05634377342216135 0.042103847559250056 0.015871411390432886 -0.03663314383590798 0.02972987979032252 -0.04929237874393939 0.038888933906627295 -0.028377093316469985 0.031844735907761636 -0.001386171654428952 0.007665847703361089 0.026861526757306534 0.011419112368556474 0.03960967581076812 -0.0447026902442311 0.011131790736392502 0.025903737916787364 -0.030772636769895445 -0.021269154118943697 -0.03998234335685928 0.0019722598907197905 -0.049690998334943504 0.020257509399718203 0.009652837020349386 -0.0097731267147737 -0.013452479087116944 0.00501710904599134 0.04168307778463834 0.029715879169200363 0.01629291247656363 -0.002957391668855916 -0.031898087110676945 0.056403517999042446 -0.05718740555677145 0.051481321701368155 0.010549021127487079 -0.02486630284803799 -0.037773379442286 0.039590851604056544 -0.0451848352978414 -0.009336652902863972 0.008329500873786994 -0.006382142428888284 0.02342047176553189 0.004051069259273594 -0.04132801847579675 -0.042718978583748624 -0.046820351604503034 -0.048413516519312166 -0.02755233339283984 0.023109092798440273
The -0.029938785871749928 -0.015327854841894613 -0.0056756528114366225 -0.009150401306054434 -0.0018152558667234935 0.01878624704863663 0.02430275350766658 -0.01860150492728147 -0.017972498032561728 -0.01195705433470376 0.0048494127536301895 0.008374655144681449 0.01962234366693119 0.0218548338564249 -0.01751598165632053 0.0031948140044004325 -0.0308660195411708 -0.03034157266461963 -0.016549235363712528 -0.022871104554151905 0.00604645579388073 -0.006992901668974132 -0.012326215855240073 -0.005283541598318543 0.009416336511514965 -0.0038520686539887544 -0.015395915680101714 -0.01664220075778949 0.006320595874484745 0.032327707500261135 0.016006004196668703 0.034430109227547454 -0.023755284773698572 0.026108099924310138 -0.003951244688913643 -0.006321771870366717 0.013181735428506171 -0.008363905016089353 -0.0006877039446277099 0.02311418998101575 -0.00483360384231544 -0.016441733439112465 0.02870017853769327 0.0221160105201264 0.020749436119126278 0.02848927903562486 -0.00040960218180858654 -0.013028975951915843 0.02527016572835008 0.036252963324402074 0.02527753779609452 0.008758833088039292 -0.025047363534427092 0.019108116133048417 -0.03155735692045601 0.020521992283740572 -0.01653876020287809 0.023247066638998826 -0.003673856922750457 0.0073532122584074565 0.012267463948239654 0.012521623245295335 0.023080896923166533 -0.031779440751682785 0.00023669864703273403 0.01802867393821559 -0.014625217849185437 -0.015338551754564207 -0.021140660201546976 0.0023314054152634663 -0.03471984096732311 0.00898646052991564 0.005082074412327782 -0.007441599466249755 -0.002313408624308188 -0.002936568739433594 0.019140939749777326 0.015880775458990946 0.006178391335890138 -0.001125837015633881 -0.0199407113592485 0.03171779267653718 -0.03784947386267456 0.033857267729880805 0.012208888356214994 -0.01631200730558396 -0.023423855848534944 0.0250307646256724 -0.0310552199437487 -0.003959298372896956 0.008906761719517318 -0.002621348197850337 0.01859021856257441 0.005922393935827371 -0.03114523175944197 -0.022215399337656223 -0.0311315677095101 -0.028301593460613114 -0.01403794975990111 0.012782459753328788
trade -0.04270873048535936 -0.02414763990217626 -0.006536598462598676 -0.013697143451420007 -0.007170240900303931 0.04055914704759022 0.0315359311400413 -0.03091421902243165 -0.027067040206244977 -0.019937440947306803 0.009624992529842682 0.010789561261512893 0.03928961184010989 0.03574475571558609 -0.028851173657724497 0.00292835114971385 -0.0552171770252785 -0.04523318121432104 -0.015195614979222897 -0.04307491871190984 0.006999618724944436 -0.00033685065133679464 -0.021025895414701026 -0.002548221483144289 0.014500575009984373 -0.01684421988926009 -0.02481103438213669 -0.0230580394765876 0.01159284072022384 0.04264536883430432 0.028583312061162665 0.051817928470655264 -0.04184396329540893 0.05292061761792131 -0.007000846247996528 -0.019413652217815536 0.02497376368735463 -0.021241558724852214 0.0034002631077968853 0.03831285952156715 -0.0021281286579113183 -0.019628574624508694 0.046201218998336124 0.045582148400337835 0.022134516528500944 0.04754443512167156 -0.011965769955209994 -0.020978581367473922 0.05068756314091842 0.055073327059575856 0.04547236867649285 0.019212824141358414 -0.04124525588635835 0.029446887276201678 -0.04223961223631972 0.04185356957878878 -0.028158089562990724 0.038633689226376604 0.0006813836626542699 0.013679588878942373 0.01969654124780863 0.01744163166113984 0.04281009694276206 -0.04264014209300797 0.010873517306797519 0.020324618553521634 -0.024217468116713627 -0.019058463292130873 -0.042656904694122574 0.0023174616560695136 -0.04916590365431166 0.017766340266107454 0.007591672696179888 -0.0017726589022646682 -0.011132692226091347 -0.0040650781670769675 0.03965322263602244 0.02789841357250991 0.02114234245802539 -0.0003726634639084128 -0.03505910931885119 0.0597925267693308 -0.05113504585680746 0.04774195867379489 0.01652366456907575 -0.019004410895620195 -0.033087899788550354 0.04300646615980165 -0.04347258257677358 -0.005637659497363497 0.009439211123997157 -0.013238024102562956 0.022754769069988263 0.009242443007782637 -0.04697860968481446 -0.03864500611330287 -0.051385209433571805 -0.051407883170257775 -0.03154974027202408 0.03126931526681259
for -0.02827800731622401 -0.0221823318934544 -0.0010385698107156505 -0.009701649830091023 -0.006903233732829285 0.021689783790082406 0.023037924687396 -0.02384733036923376 -0.022974217255707696 -0.017131620995194947 0.005946808500133205 0.0019580586726334333 0.03018794417419952 0.017662452535082262 -0.02183857473562179 0.003768668014272865 -0.03349701016865072 -0.0286278635886473 -0.01628578805978207 -0.02903756438896784 0.0019548630137826506 -0.0007303919488167382 -0.012705717015802222 -0.003268187474823603 0.006246244385415491 -0.01159969617500382 -0.012248850788958415 -0.014917338577707925 0.009564707516279043 0.029550452148047506 0.01504052458908986 0.03370793683215531 -0.030157764521623248 0.03810452338587033 -0.00838068841726894 -0.00870738974126511 0.020909083574274595 -0.014521240871374262 0.006837729178774345 0.023203973861765564 -0.009013802780284293 -0.01774427257541652 0.027124771004558505 0.03129743318966626 0.01868578379668165 0.029025426684213606 -0.009597444953043228 -0.010715951086286151 0.031771334074938734 0.03838913496227643 0.028796843363095553 0.011376425537932841 -0.02388021430124806 0.015380322347893771 -0.037371154968312614 0.025905631127001158 -0.01569252396448547 0.024564233063692455 0.002942431328633654 0.0065739689488247014 0.015706301224361587 0.007476476636425167 0.03496923626153602 -0.03444773486581177 0.004225805249043637 0.016030190791097233 -0.022414427817976378 -0.012674268021922777 -0.023725501185111207 0.0029798849155949787 -0.032447051571455846 0.011879648139481908 0.004782483298037886 -0.0013961057411232822 -0.0049002094812656575 -0.003950481932407919 0.02480863210886584 0.016600035344456796 0.008748321444683276 -0.0027813002843593104 -0.023183360240795828 0.03849604673832734 -0.036042216554268196 0.03278548783877035 0.005055791012351446 -0.01880807099729278 -0.01858280371059256 0.02878990227372293 -0.03109861973667765 -0.0008669739151624957 0.008270316264446017 -0.009289063896990577 0.022452697512688226 0.0014661831532882712 -0.03259238411572599 -0.023599390074447335 -0.03958021788122623 -0.04203739918100281 -0.01848445034419942 0.015579787690071083
a -0.03517500713718031 -0.021819475856191865 -0.004870852931182338 -0.012339413185172949 -0.0035468753377918905 0.02895979440511652 0.02177386489577593 -0.02873847610647823 -0.016504597525168745 -0.017024734784066256 0.007221522134168828 0.008010481662781902 0.027756086870558846 0.02705927043596747 -0.02457273419828053 0.006398519752443701 -0.033195177804862475 -0.03470763419621778 -0.014586604349038725 -0.029006357855550044 0.005809366853447378 -0.005423833675480882 -0.01466534500066191 0.0020341560942757067 0.00844534787233875 -0.006183437460495542 -0.00977099479080158 -0.012497343698312662 0.007942099457512397 0.028836815854248514 0.01578098298902362 0.0383135814507306 -0.026436390097120083 0.038692764891585255 -0.010164508295167457 -0.01616752484183483 0.01244795010150854 -0.011516070391103996 0.006713076386813782 0.026184823249413396 -0.007495028256736242 -0.018553002565614714 0.03063270161759628 0.031161839943500125 0.021143835049258982 0.028776642521809837 -0.005887021393630838 -0.017225391798419726 0.03569595303004416 0.03597570938566724 0.0345566475225648 0.013028595258319318 -0.029832660374430216 0.014778222548092555 -0.03515280068227798 0.027648408796517785 -0.017934843027318164 0.02572483506706087 0.003938620563118475 0.0021199354942438033 0.015562283602153067 0.0075804324160563255 0.02911954693713828 -0.030225826314801755 0.0026549131873111797 0.012180129133983558 -0.024056370501909542 -0.013718967431979485 -0.022606712096830944 -0.0026611092503740943 -0.038190456874135865 0.01657270484794006 0.004685717038116798 -0.00019298712741590713 -0.006937928462340039 0.0035055440394879123 0.02374417974067536 0.018341657103131927 0.015389051843493555 0.0004734704761589687 -0.027206031617090388 0.03831801822156155 -0.04303204141827921 0.03670844676429452 0.01240330769510713 -0.019984349601582574 -0.023007700073567203 0.02937317859205717 -0.028329425656553917 -0.0036430583974580858 0.009833574221196364 -0.005112059530967772 0.022877923362568064 0.002907872392559912 -0.02616678704829623 -0.02571048355951249 -0.04037207537732823 -0.033295782872757744 -0.020824297942360747 0.021062102130283134
on -0.020548801320922374 -0.013770359866969483 0.002406269910332986 -0.007589177819909334 -0.009399392694132851 0.015444927327078172 0.013087348551855187 -0.02096722302523669 -0.011816838423727032 -0.0053663314981441 0.006737703383224393 0.002059481251999444 0.022891521329206643 0.019251646138661822 -0.015672361096407208 0.0010786893075561937 -0.031039698612416247 -0.02062363308548247 -0.013419094182647614 -0.018146019986675727 -0.0002178492698760679 -0.002686869777729406 -0.009046219623937533 0.0011041631215581724 0.0069597674584091765 -0.006465194800551112 -0.007795580474143159 -0.014146292471567486 0.005523171668197818 0.02708598905370497 0.016957018338683252 0.028113489300649667 -0.021783557716290838 0.025372375856179828 -0.0008699122763052868 -0.006532215847286728 0.01381717458847829 -0.015155927809672431 0.0030611689179239235 0.01847717638327095 -0.006286375473967954 -0.008410452983176353 0.021398610739179355 0.023626204779308668 0.01454721760764663 0.022791467578473307 -0.0032357836022864515 -0.006360823791125507 0.023899767652585134 0.03193608823724666 0.024339365645588005 0.004010724049509288 -0.0182496241469644 0.016523414513517513 -0.024715841152120197 0.024480473551401035 -0.014891737744284457 0.02032288309755614 0.005212224206829178 0.00405101731676416 0.008217158716179347 0.005992084602821869 0.021570810574654663 -0.02481696036261367 0.0076128804756310274 0.009419705069937296 -0.010076683997087395 -0.015819716752108543 -0.022241217392640986 -0.0035012194682442765 -0.028265747136278 0.013330598059263397 0.005648607543150029 -0.000785031281084132 -0.005892136785518555 0.0028459929155622028 0.02384473966644953 0.00797329212626989 0.007368115144147399 -0.0005785545998379659 -0.01926650555499206 0.029255172453030606 -0.027665793406841267 0.02180956034986605 0.003995781068665248 -0.010923341165024412 -0.016297101839103132 0.02328077176779915 -0.017800418852721933 -0.004140581825821334 0.003699919090528425 -0.004259556898589688 0.013063890486176856 0.007537813411677769 -0.023913620230486356 -0.015758110022752722 -0.025984538494557497 -0.02747912426685108 -0.010413273890758289 0.010864235168924836
is -0.021260673251510428 -0.010319323022588617 -0.0005774694209705988 -0.009058559041241438 -0.009749279374045131 0.017266960265268597 0.01661856499966239 -0.013075621173197867 -0.013437028189086552 -0.005483123714813047 -0.0019668701691481997 0.0019106005662103418 0.014140438207947734 0.010564918587698311 -0.012076253953673836 0.006522476263668196 -0.02231846708518283 -0.024692616920085727 -0.012085830176210725 -0.023890197139760184 0.005439861181235976 -0.002292477078089714 -0.005806175132610229 0.0031109967436054623 0.009205402980032173 -0.00576752056943615 -0.011457718955625229 -0.011612178295154808 0.007403974040668244 0.02324717836738531 0.009613630066530236 0.022975233630185242 -0.01853773137357103 0.026365765044826982 -0.0046014466116750035 -0.009291747594868638 0.009470675178988797 -0.007533707059817443 0.006205442401093868 0.018161161104082398 -0.006621375073032417 -0.013546455219532592 0.016115224093005462 0.022716595558238975 0.01616452389343723 0.02290207766762646 -0.005054234233428792 -0.006059155322739749 0.01815909787860744 0.026691033133500915 0.023424108164620656 0.005138607041508289 -0.01485484010801782 0.013798456688916912 -0.016967927354634788 0.013524699327038217 -0.01623345471498967 0.02107099930988673 -0.002230852546119289 0.00789818603306657 0.012377769545949496 0.0066956183480293 0.02131344016482105 -0.018795378255884516 0.0038258756874759545 0.014226205750009756 -0.012606926074385807 -0.0068597779814270595 -0.018051062297802217 -0.002432308996382417 -0.027865291258994007 0.01016712536313843 0.006875391291193374 0.001802965527393397 -0.00631685253450771 -0.001296675048563684 0.020653817435150608 0.0075577345303301825 0.00911318908685466 -0.0018768611954787357 -0.011735586260468497 0.02622978079925723 -0.02739511468279305 0.024635736699022224 0.005253111241135769 -0.011281704028657304 -0.014330993064902667 0.016155483959955492 -0.02030507555450989 0.00013791457468300588 0.0020808117286772016 -0.002601868073896392 0.011910981894130234 0.006638287036176729 -0.021666201710120493 -0.017455542028077777 -0.019771707144572426 -0.020806547700145044 -0.013322512936743624 0.017422275047686897
with -0.025160754128311737 -0.015855220162162967 0.0004669381290809263 -0.0022487002201409725 -0.001999920917933469 0.016662123906757566 0.019375275709219583 -0.02201074343863097 -0.01243489345491181 -0.011581993596300792 -0.0009269419901948967 0.0066669741277053576 0.021144516208150804 0.014143342612935296 -0.021100828808463413 0.001391540979356472 -0.02746954489315729 -0.026702051388473952 -0.01189157415269815 -0.025281202816975882 0.003813894650974097 0.0009143368879785804 -0.006573941207338132 -0.004669860219486432 0.009148649950169781 -0.006890200853813157 -0.007787638170719156 -0.013571222717345609 0.01232180874394911 0.02200235906029386 0.012381561920739411 0.02483699097099955 -0.01706435059178151 0.029462145822313702 -0.006147506302978798 -0.013560219066219563 0.008381891864179836 -0.01586728530361757 0.0027707023438691162 0.016299733533626855 0.0006610948062343368 -0.014531461403884538 0.024696148976302575 0.018217582366055893 0.015913919426602675 0.02002246166500541 -0.008470292467764044 -0.010498899973400654 0.020149792245571937 0.025529623778605934 0.01808551899095823 0.004623665371994533 -0.01605155605773301 0.015816632846093116 -0.025782150415981683 0.023418467746980892 -0.012599806706418882 0.01729762997153081 0.0028814743664865587 0.00034165338061388457 0.0132107939881659 0.0024590292957850316 0.0236864718297651 -0.021195009591625947 0.0006836129867215953 0.008926631094678485 -0.017712420834080384 -0.011447654188683222 -0.01633401414814203 0.0009811541754379078 -0.03206836092969929 0.01342972691152129 0.007469289018939768 -0.0003247713708047194 -0.007147665896155443 -0.0008643593497701327 0.020979604406973124 0.01032148388221632 0.006665176663730881 -0.0017150449522525509 -0.018437891350758094 0.029934829804281117 -0.03063818195105601 0.02944863336977675 0.006296740075266841 -0.012854846397176153 -0.020350140710951384 0.025192515405286504 -0.02400660367102257 -0.0034222737559548365 0.0028796832429331546 -0.004519549253315641 0.01821659297836089 0.003265498892723161 -0.02053230101185038 -0.025170708073970413 -0.022745210102488124 -0.02731779045276189 -0.0197748402178148 0.014255880927945266
from -0.026880461291284585 -0.021702621280048642 -0.0038914205584969505 -0.011455712413460389 -0.01123949820306359 0.025270698678330577 0.021394060768548117 -0.01948882115046927 -0.01577773346514211 -0.007461823966268134 0.0010008148876619052 0.003686177726692485 0.025080102170637955 0.01885846573298547 -0.02313772577502243 0.0023111651428798243 -0.037064436385507424 -0.025803934350115663 -0.013816237200515998 -0.03289168610435796 0.002839804987895882 -0.002823554727747138 -0.008407450813736205 -0.006614023515664372 0.006199664492006834 -0.005839841183430698 -0.017599066431104784 -0.01895822327374962 0.010176053538112111 0.03258177848693119 0.01945072889052741 0.033464397917347156 -0.02431814694054134 0.03166522919943444 -0.008550246448670138 -0.006749661005973808 0.016877526175172942 -0.011200997133032582 -0.0006763853671472698 0.021116748993819722 -0.0022240959920721243 -0.010395541949738808 0.03062512916608177 0.023617420720787253 0.020461088710435428 0.023861342318278737 -0.0032306617383850798 -0.01310502378698783 0.025629464077193017 0.03921200878234607 0.02956781513944499 0.0055474528171153325 -0.02449244887967076 0.016926990161288766 -0.03202755400259821 0.0201399115671748 -0.012248150309900578 0.019962631993576594 0.005107625977084515 0.006673440358047612 0.017819826403653313 0.010144347425475184 0.03029257318174311 -0.02567102885306571 0.007475102626709485 0.00974849990075446 -0.01704329734179398 -0.014538832635167512 -0.02476184359723923 -0.0006479046811007932 -0.0351706885076593 0.011203586946398525 0.010729586729055163 -0.00017767893998443013 -0.0032465123707540854 -0.002579928880956214 0.024737427595590344 0.020689906191156137 0.011335393467824799 -0.0043021751617532316 -0.0245371150675865 0.03991895701648465 -0.034600251285716394 0.030976445999520527 0.011834872272656158 -0.014770417079334687 -0.02016021642476819 0.028494434177437137 -0.0271390706260456 -0.007061323552398294 0.009240972789433758 -0.00830043485819447 0.016388021783175374 0.008904672630147057 -0.02286729318235842 -0.0254420315482865 -0.030996967468254245 -0.037225877335167856 -0.017903112614866826 0.020919080622085792
as -0.01582584730670211 -0.006126463226719986 0.0037500384972455328 -0.0013715762637249202 -0.0013586459361167502 0.004309160330271722 0.008700212556600088 -0.004533915296222233 -0.005342222645721292 -0.00045408395609042643 0.0006950173918850965 -0.0017450063052055138 0.013562941773731449 0.009806735509929557 -0.0033508299811204597 0.005227898570287674 -0.015686871320784664 -0.006658791500523666 -0.008751565554100222 -0.01173343582798767 0.00010196642747616306 -0.004432949122209963 -0.006004836024130138 -0.005737467921824625 0.00204951933335883 -0.004441669305589515 -0.007691844995001743 -0.005915050980684854 0.007327339909964162 0.008825259256982335 0.010905600732652447 0.017025651176220968 -0.0067669995708309755 0.007433904131271043 -0.004747153546678601 -0.001553979943537461 0.0013251855209088957 -0.0006775018511008932 -0.003753814835600878 0.007013198806868994 -0.005571788502263062 -0.006905438459582 0.0061136191298512745 0.013198912906639384 0.008981292037068806 0.01090455449554853 -0.0018171242532425678 -0.002980442493255189 0.014158508249800765 0.010294883918573885 0.010095607511655336 0.005568231071505568 -0.014208603243208506 0.011173671627269855 -0.01380850655623044 0.009224586728269075 -0.011483151286728341 0.00824825311849123 -0.001507594487383916 -0.0017115045025427394 0.003411500553945418 0.004319685052311959 0.013960110623931678 -0.00918921189789696 0.003766180714802347 0.004864908974775937 -0.009817905958058561 -0.006216336333789838 -0.008722591415708131 -0.0028113001131998203 -0.016270275129166116 0.008624170522887695 0.007240491344242666 0.0032293850634107285 -0.0011222867934053142 -0.001717712484892081 0.00865312150475986 0.0036795739987383635 0.005139059291024246 0.004491149084894905 -0.00837379484872798 0.009937125979077381 -0.012530411200097178 0.013496526304099475 0.0006262099234549245 -0.008082843500541795 -0.00809272146750842 0.013266154328080445 -0.010710469563156346 -0.0022088695180089036 0.005813886788328611 -0.004151469451637137 0.0025394540202443305 0.0034969572416359996 -0.010692023411443194 -0.009073379408892877 -0.010088641396236154 -0.010643262226997617 -0.0059139179203772435 0.01059810410866918
percent -0.0489041779165529 -0.03499839242669725 -0.008523012634717607 -0.011437631865963287 -0.015367586651553387 0.0434025000101308 0.03516436523166791 -0.03701865376919477 -0.037352874488173336 -0.019487909123034212 0.0082278290748195 0.012209064727076528 0.045727335905422745 0.035205402718955704 -0.037145738069442054 0.0007077968680716584 -0.05910552971591561 -0.05094803514122723 -0.022620197757038215 -0.051921534094243604 0.007138869115284519 -0.007679738579732394 -0.023258741306869814 -0.0029918133006252303 0.01452816764122717 -0.018596203352553388 -0.026817225498862268 -0.02880032715300906 0.01755142193923933 0.04772688935486167 0.029253497336544344 0.05981593921398724 -0.04665981342382825 0.05439390677987415 -0.005757270585442595 -0.014370145541316118 0.03081652139036542 -0.020223459512822457 0.005200652178439871 0.04808887993840527 -0.008870773891060661 -0.028281443636056943 0.048161096060308745 0.05204884801935911 0.0300713004753623 0.05237374883458412 -0.012261320749887112 -0.021289013389863002 0.0518715367832092 0.06201956239197289 0.04784813973250981 0.01949977139924142 -0.041445757208677436 0.025199287955419234 -0.05630766532035343 0.041226841797845956 -0.029505684587093132 0.04357644730464397 -0.0035782414693284843 0.014094846696589912 0.02479443541903793 0.016715626256657647 0.050910183725329364 -0.05067431613035293 0.0028283026384243503 0.027182764028416826 -0.03430670425309132 -0.028054825885405442 -0.04182588957683998 0.007411928582509534 -0.0605031629679443 0.024276650120981815 0.01580896116333891 -0.002707281477519586 -0.013773563231423359 -0.0010581551587756839 0.04455527777581295 0.027837066814429826 0.020911166727744252 -0.004851319554663215 -0.03336345113534471 0.06406533154834966 -0.06500639297480017 0.05774987093080323 0.016131572099378717 -0.023763176919025585 -0.03550044076738484 0.04347360791132352 -0.05309636918114209 -0.01343868359357095 0.006607072280008374 -0.010879077370260974 0.03311748174600832 0.012717815401080515 -0.046361443551895504 -0.04340315003192054 -0.05941603994024584 -0.0619226963787135 -0.031779345679070536 0.03021012196899265
central -0.046010023240750285 -0.027640538584958015 -0.0029410434937739275 -0.006936993065509335 -0.007183822855953697 0.0362294334959368 0.028348451316281102 -0.04075097462996183 -0.034441718728663515 -0.018070059865452334 0.0058642921313846515 0.01239351082381703 0.03651894277747414 0.028608559808783973 -0.028058026454147175 0.009266987505131457 -0.05156227781896942 -0.04724878838854999 -0.02388501338412341 -0.04440137239558799 0.0009070544600113281 -0.009070063707867287 -0.014849361691422524 -0.0038491171759395468 0.016973505031939427 -0.01741119122730734 -0.01700313731066297 -0.02434018742250995 0.01211723987376998 0.042023188748299856 0.02534715677268454 0.047187815217685496 -0.04228910643564976 0.04788473203014947 -0.006011339651100119 -0.016090486488920183 0.027032680038897732 -0.024817961973351507 -0.0005291042391211915 0.04251214262838812 -0.007107809678981025 -0.026993948521658727 0.04901161881545227 0.04445782572448333 0.028817647137508225 0.04070578815718454 -0.004430092593355327 -0.01922635607470344 0.05137254476437939 0.05718584944295741 0.04186456257781263 0.0169818001308178 -0.037918115727330656 0.028393475016861812 -0.044948830608859736 0.040829204854534 -0.030333477966149082 0.036628112652452686 0.0024924634956360694 0.009883340667178388 0.02182743859473482 0.00922939674214721 0.04260833552065898 -0.0436616376741917 0.0038523966740312745 0.02299611122861153 -0.026285051354030628 -0.020840263860968676 -0.04332859407461126 0.005137403665880214 -0.05661977856394709 0.02312034004157414 0.01240672137342009 -0.004577655812938424 -0.008606660590427207 -0.0013800850055757888 0.04216398812347495 0.023629865394311837 0.016631576780899493 0.002578947231763784 -0.02982353622672095 0.05557468824306422 -0.05909435989719729 0.052024851196940135 0.010320378749716015 -0.026656556846294154 -0.033784245196987625 0.042501168619594326 -0.04415095486477275 -0.011646315917841467 0.008406105136641983 -0.0148153971580801 0.027781267786956252 0.00491066554905992 -0.04543323091757081 -0.036307023714754645 -0.05635769373900678 -0.055246351069073024 -0.027921496758850143 0.029152435188692094
growth -0.016016628584178766 -0.012238555706807272 -0.00018264845098266852 -0.004568005604950528 -0.008981622247820254 0.012332356485535285 0.011198867440421872 -0.01511991154547249 -0.013054618516383383 -0.004241188051050943 0.004939957173027601 0.0008312140047366212 0.015161959564136263 0.015087739348732317 -0.01138141201460885 0.005755659807044817 -0.025735701072064677 -0.019985231054692736 -0.00560575915873435 -0.01715495994346509 -0.00015809965777737703 0.002250992930582209 -0.008742021612715157 -0.0017711714143956068 0.003868547566096667 -0.008983518499117302 -0.011183845838637546 -0.009444058523107089 0.008571495934613918 0.022225938211148467 0.016544347816961777 0.01876023696056326 -0.02220185730851609 0.020499887711753595 -0.003798524821347399 -0.008334736067974184 0.015362280420476427 -0.007740875056443769 0.003941310962808409 0.022146858360054998 0.0007686277230830329 -0.011498129426877172 0.0213937616610483 0.01662234778434114 0.007455200899817393 0.020944389592043748 -0.0015435249774694443 -0.005252408070655254 0.021914874792062684 0.02277800041763702 0.02089136599441263 0.004218521643060595 -0.01987875343545545 0.006337312224576884 -0.024595893205054873 0.02051392745493043 -0.01547176907354025 0.017816699261188982 0.002807956246942211 0.004888910279966604 0.013402760476128272 0.0021112613848332244 0.017551867289807403 -0.021279792544441626 0.0034981265273398778 0.005832049961313793 -0.01160914103398306 -0.009741119430127149 -0.021493236759611983 0.004204880692513055 -0.021566050575200092 0.013818704779890688 0.0027129901155154095 0.0002630144666844129 -0.006611093240905607 0.0008047505585104597 0.012813584698874232 0.009339430663333658 0.00947151604698297 0.004197987230497525 -0.009660862223571971 0.02175189150495989 -0.028784027811675272 0.025770361787838442 0.003016395296876342 -0.005315188511151416 -0.017030825761653334 0.014109316266884516 -0.016793390613867323 0.0009039913037971941 0.0069065133914006285 -0.00038654832484115063 0.01308627046558332 0.008137488704607366 -0.021823902286142654 -0.020274106552366358 -0.022039193338361213 -0.019108641915361834 -0.01790920890184916 0.01568423110033024
China -0.04067526658599084 -0.023563671482780744 -0.005341050584503317 -0.008616971081831182 -0.008354801488494903 0.03185865290642418 0.025423108059429145 -0.0264097403500468 -0.027953429605444814 -0.01838979526689762 0.004446277786545458 0.0030168585655732626 0.027712742079186906 0.027768762185363772 -0.028946269765641804 -0.0005165507610869675 -0.044553798237775104 -0.03236355808736054 -0.01343053991126085 -0.03914462772552209 0.0070096248844494415 -0.004626001301336487 -0.012667519620259627 -0.003642519164244074 0.009024027865072906 -0.01112363674214207 -0.018421029844067953 -0.019306172852227965 0.017592933108564822 0.03523506234775146 0.016199821975763768 0.04285027978170656 -0.0350705846001831 0.0413277042109845 -0.008528491649762705 -0.012968056471406529 0.016905583517233477 -0.020348919977497028 0.0022956099312407734 0.03296693919920844 -0.006123767607074743 -0.02405565448778382 0.035770288333882246 0.03284831151921671 0.02475850927077106 0.030950285331489663 -0.007669246624112287 -0.01163662734418812 0.03977820685273954 0.044335039605192625 0.0381537311980998 0.016135643100396665 -0.029651678688065827 0.02092328632788775 -0.03345237990711131 0.034432578032730726 -0.01769773279852846 0.02510578735927541 0.0032933940806077204 0.007992815975314356 0.0192509951904095 0.009434137016803446 0.033391581902700015 -0.031065877386795435 0.002255764876360915 0.015184898050090993 -0.01934482107092379 -0.015375315209365838 -0.034117804558961094 -0.0007452994603059254 -0.04583550239632515 0.013867642334108754 0.012527372230483504 -0.008292744175669185 -0.00698539767125482 -0.004906225241583632 0.03432992970133063 0.021016156468199203 0.01081726210384806 -0.0026288767833367614 -0.023075331318448775 0.042517345054229494 -0.04885697895640294 0.04609198637654763 0.007805771305272942 -0.01628681265236679 -0.026358907256476695 0.03511804041696123 -0.030472503368467085 -0.009531657628179849 0.006882418696691687 -0.0036938799538805455 0.019344064736708532 0.0039629916747963715 -0.03935027630793793 -0.026715221416663278 -0.04080625282280788 -0.04727911444878054 -0.026546843947533767 0.026828501449569286
will -0.02558099829659858 -0.013560486798403486 -0.0073546616382714515 -0.007902563918227018 -0.011306806134256298 0.02144958470415199 0.020298299383782147 -0.0268078561411596 -0.021635519838278376 -0.013386956394873212 -0.0014466218088086346 0.0054548536992484525 0.02101296559063958 0.017560612980548698 -0.015927335403197167 0.0032810421113375083 -0.03191183885019241 -0.03298767606456533 -0.017710395745084644 -0.02564369781303479 0.002272937015440154 -0.001850470147531382 -0.009143550232103986 -0.0001577247936569338 0.005985868628050243 -0.0071631688596999026 -0.013252204992565984 -0.011637143856334088 0.005301803139203138 0.03089275411643893 0.01233635912237474 0.03215730697980671 -0.023880289829673062 0.03195719050148518 -0.001557400258462419 -0.00562094096136159 0.011571348426524311 -0.009060758179319511 0.0006797516120354899 0.020759260435236224 -0.003855901394676433 -0.014787656681888929 0.024227587688497556 0.024400808065021158 0.01613770722342396 0.026423761531232874 -0.0006402660339021698 -0.014292750342511271 0.02720730945657348 0.03168075077773177 0.026640612490226458 0.005155592172002143 -0.0196248399188628 0.016739310700178738 -0.03170287201100095 0.028733435795822784 -0.016313959345037404 0.025786745059810014 0.0052628043330143395 0.0037392891896692658 0.01635784839904999 0.010107162302972683 0.030934618756663604 -0.02845027303944778 0.004515111651188654 0.01802341550353342 -0.014954007427995126 -0.015243105906445708 -0.020913555832508732 0.0008833256941072009 -0.03827390870007409 0.01414154622196176 0.0030931669608964315 -0.0078373957017049 -0.008188243900684749 -0.0019711253619189295 0.025586307580870143 0.01879572448969327 0.014531185540909458 0.0023101097045589744 -0.02392697597748102 0.0356656802427147 -0.03186997187357677 0.03555272987418201 0.004494670699878549 -0.012815460367503504 -0.022118385168050352 0.030235934252131117 -0.031126792551384095 -0.001267885923965942 0.010068733598608656 -0.005325249605237841 0.021450359610577348 0.006150563333601571 -0.027547713903025663 -0.02325424856344928 -0.028459080145426054 -0.03262847211457674 -0.02166290825432198 0.013205081600658653
SOEs -0.04486258922792051 -0.02501245905003393 -0.0011674995895110808 -0.009312217203960893 -0.009432251177323615 0.03142951516187456 0.02569852833619992 -0.030337562351867575 -0.029584670476857956 -0.018397234751705103 0.008563836426263937 0.01226216869608373 0.03975415152883511 0.030581732832748194 -0.024136031381017855 0.0034425748130517365 -0.05004543005415016 -0.03800762209034134 -0.015945875189649045 -0.041424905473365164 0.002120482214350282 -0.0012264096529425244 -0.019330184914452982 -0.0031403530187979144 0.014347322181034183 -0.015477831015869617 -0.016310822903604163 -0.022401562244879776 0.013389024695687498 0.03685404221952378 0.01906721665236047 0.04785054899901657 -0.03596513327911481 0.0397063677887759 -0.008431085238549074 -0.016635419743417746 0.02479425062036121 -0.022407514320738814 0.0005591985191333404 0.0356340901122539 -0.008503432688249492 -0.021087251676796377 0.03582339378236459 0.03510485770794612 0.019627379916275015 0.037190576733410384 -0.006479100070437277 -0.012438856642901943 0.042593348431194715 0.05381101254544037 0.03656322397031226 0.01245659985349816 -0.032202700250999465 0.02713490251483083 -0.04555583783195549 0.03565071620095172 -0.02301999797446606 0.02852646092152865 -0.00029487418804683037 0.0043770121891206805 0.025613476452414116 0.008782487518029167 0.0411615330978456 -0.044162921238451926 0.005559157235048929 0.01879085121486638 -0.023411001944698348 -0.018106035631867 -0.03594918067263937 0.0040222488667390035 -0.047184692143908434 0.023235732806412317 0.011476799144344406 -0.006244823511226862 -0.005413994360389592 0.001048012675212452 0.03235614570012514 0.025610574301089387 0.014769679203681586 0.0010471861732599278 -0.025989923875828394 0.054366316341493824 -0.049470494588989035 0.04393026117541486 0.007188259481692994 -0.01812257714716077 -0.02452910215288643 0.03777818345121655 -0.04303703279106126 -0.01048032494437306 0.0065837362270094 -0.011767664674789688 0.019430765332739804 0.009119494136088088 -0.041803968059648304 -0.030080527760405772 -0.04062730251348508 -0.04759603698331318 -0.026453822128857857 0.02369117986923708
have -0.040646617768826415 -0.019834961626628535 -0.006603364040471222 -0.008224273947160592 -0.008909585653124812 0.031127960416942786 0.023220058460217394 -0.03483368097715264 -0.024159378286015436 -0.011937654789269867 0.00176282168451344 0.007915947100725972 0.03471320355599166 0.027176119002813227 -0.030880356311146977 0.003229620112179111 -0.04443352170724779 -0.03803418478233675 -0.01627614826101928 -0.04183400207318948 0.0014433723343045448 -0.009183459340033565 -0.012630493145198388 -0.004523434332276012 0.0095716569866974 -0.012441208127919707 -0.012885022041458347 -0.02122148025308076 0.018620791512976777 0.03895697308441694 0.02257480968932758 0.04357433415324606 -0.034526446240022886 0.04412502632446662 -0.010918170682206659 -0.018191679712065697 0.023155714796512083 -0.019148803003514698 0.006614762713113684 0.037904628825455915 -0.009899156240272223 -0.022481352797090987 0.03472737581270234 0.041215006739116836 0.02257397055847827 0.04121757268493509 -0.003820607187772875 -0.02057318363583709 0.03884709450176453 0.050457529989643535 0.03681249560546165 0.012866031726953659 -0.030510763265562905 0.02302287239037037 -0.04107969335003946 0.030906970385851502 -0.02541457521149669 0.03605270303576297 -0.0013776531387473861 0.012106623247092692 0.022547358241135403 0.008358283570892132 0.041037862132606656 -0.035055529425626605 0.009071002949179128 0.017069945549742185 -0.02357602406827605 -0.026105157974070422 -0.03614565446693753 -0.0010108853932490889 -0.04219425599039507 0.020947269757762243 0.00827383523043448 -0.006181309771120102 -0.009165779593617926 -0.0045057102031171945 0.03730712212038801 0.024673111748496714 0.01784334013340806 -0.0053350212946881815 -0.02315026583564402 0.05226066837440218 -0.04955543762441596 0.044896101823438075 0.009023511166815552 -0.01707952926783062 -0.02935229263107688 0.033784987570986975 -0.04120253375934558 -0.004489522352705667 0.006193589973840034 -0.007664095698751849 0.020443986842724034 0.00955473554176035 -0.04218866121847112 -0.03536984762916207 -0.045876745370019026 -0.040855525521897605 -0.024031596548160318 0.027359410242951784
it -0.023330929946479884 -0.015482099992737745 -0.004551936943022661 -0.010368060245162894 -0.007732646972806164 0.01750642830579082 0.014947511691948898 -0.01521597524551245 -0.012885442818644854 -0.005540129093530947 0.00507193711546016 0.005418966134287485 0.024037454877418242 0.016280493668755096 -0.022196736487545204 0.0021670759914927448 -0.02978056035773564 -0.026161455412438223 -0.014097888476762951 -0.024301212890074878 0.0022952175711938674 -0.003661133798492562 -0.015149437267990217 -0.00020055555457274934 0.005864211059845537 -0.007412548544663864 -0.009352173193103861 -0.009935436620622101 0.008660552982698504 0.029718183209373628 0.01862560764987915 0.02676788326829627 -0.024184996280351662 0.031111576615094207 -0.00844472213161677 -0.0071198059245355634 0.010925478852320012 -0.016582100213014025 -0.0008983261623090639 0.018905222133694145 -0.004068556752600521 -0.010221082883958031 0.021630844574341418 0.021539405697852114 0.01609293094432395 0.019776276510435255 -0.0005792091669485784 -0.011861012203231856 0.028020642904916765 0.02720189389837636 0.020783594772189853 0.011938446351121915 -0.01887869148292628 0.012389389801382237 -0.0310376686859553 0.021578236896702394 -0.019242323177565183 0.021831203335321875 -0.0042745581368053235 0.0015288683245547336 0.01666233572982789 0.007654306388667461 0.025561084454019653 -0.023129054245193167 0.006444136679230774 0.01524701642824877 -0.014158157873366788 -0.012871295714056392 -0.023336848567482662 -0.0028326139773218457 -0.029200864634971412 0.007791290577692013 0.0051743248378984565 -0.0036774863157629234 -0.005995582160433691 0.0019305828635136253 0.020083523292219796 0.015427769669291661 0.008553716601554196 0.0002745236078475675 -0.022504103174691974 0.030605882869123552 -0.031813519068191305 0.029101842442051447 0.00692758063109505 -0.008252601458948773 -0.01778304590466691 0.027040333199358977 -0.0217132698553079 -0.008786178090606146 0.0034220334612975662 -0.003980453819988856 0.010212131136711738 0.004855971164409583 -0.026762344316622156 -0.02283702770947749 -0.02501424653950596 -0.03399390901483045 -0.016192689288970996 0.011116558326964697
that -0.014636064861824552 -0.006001717280331166 1.0041391778528274e-05 0.0006508956128910823 -0.0008994281897392102 0.01881039532723452 0.007649877906855752 -0.010017399609119536 -0.010994047649410197 -0.006719600404694214 0.002544415505057278 -3.966326141584629e-05 0.017920994507807146 0.008906504407683133 -0.015939378915201335 0.0025745229064920564 -0.022592768965909612 -0.018013474676078833 -0.010591063520664613 -0.018232573017079545 0.0014486814007690636 0.001715493977662612 -0.002308230868828758 -0.003936482074629219 0.0009463191502670075 -0.0035661601240993515 -0.008733114086436986 -0.012053295426278124 0.0009539054073249188 0.015715971591523426 0.010418715227609546 0.020509377455118667 -0.013335526303187418 0.013660902403942863 -0.005769979497549982 -0.0066768520366194675 0.0077923460886271 -0.0058405514195624415 -0.0010107024555212035 0.018405821600690594 -0.00023322330471856246 -0.00971973335607247 0.013640968981473505 0.020549892923087322 0.011635657957439057 0.020028833341717525 0.0014184489059964724 -0.0062411113254980674 0.020405700067227868 0.024248720264440082 0.011745808892048985 0.0025103898011414965 -0.013876235705285057 0.010535317904474227 -0.013393245179366322 0.017545370361032462 -0.01262229073540942 0.015161873002560269 0.005006680413106547 0.004786777412057868 0.00915573979472142 0.0010870056443434046 0.01566002078510617 -0.013063355890775133 0.006517937611235753 0.011050190138059596 -0.013130905478230457 -0.013250761203826579 -0.01837447233455091 0.006108457158422968 -0.019496719425582336 0.006350915526670998 0.004860810989476171 -0.006164944091683867 -0.007924861382272158 0.00042048597934086433 0.009744799633668082 0.008274113287240165 0.008819199411764496 0.0036725317500625435 -0.01553838107608502 0.02536910483342284 -0.023163519736004258 0.022797774005969808 0.006473597158919617 -0.005668354545055471 -0.008504162081343827 0.01684373304636035 -0.018441152813016098 -0.000611430541364285 0.0036016201028429263 -0.008002460014467682 0.005980463089288308 0.002816487899464547 -0.016738373098146284 -0.009305776924853439 -0.020838975227123798 -0.022275991414233812 -0.015376369686881238 0.013022400495152743
has -0.007449694553319954 -0.008090104698427487 0.0029868431152149954 0.0014679600417703408 -0.0043173114131733 0.011046332826243156 0.0014401751007527097 -0.0017925775624441924 -0.0063143940414672655 -0.002349868490482114 -0.0038464087873168657 0.0038831532009401147 0.008856336268979359 0.005018554203559726 -0.008681928373557676 -0.003812989393642555 -0.01238127589996536 -0.005626173492088519 -0.006292846453548578 -0.0037361139852234593 -0.001668826930982237 -0.0031673879515489957 -0.0002605649031967343 -0.0013701847976555798 0.0032591345272194026 -0.0005931083716516221 -0.006302788623434911 -0.003906223306366264 0.003551423667494473 0.008443991869734798 0.00689472731939608 0.009167672983371082 -0.00963318642640265 0.005523177147580769 -0.005549735202128501 -0.0008261456711049198 0.007774195375889161 -0.005668842459321377 -0.0020983805392413186 0.002709752851456526 -0.00020239089981617886 -0.0023329378284429408 0.01169739431710288 0.00738200831873707 0.0017916231292358553 0.005154656691182369 0.00168365301776063 -0.0030821463063494922 0.0070851971943861666 0.011262261214730812 0.003744226584468424 0.006073485509248659 -0.0068946852257738105 0.007299973949827985 -0.010612333409470742 0.004216760858671202 -0.0009371389165161009 0.009099228158061808 0.0021274334372106555 -1.8978213101429115e-05 0.006215041185256872 0.003062868931745995 0.004922794515547668 -0.004623301889266587 -0.0009069582863688259 0.0008778273401841502 -0.0010744957126043503 -0.005611926804678662 -0.0074952023867717816 0.00417994061652495 -0.013071749558835166 0.001642929009306292 -0.002893239674956212 -0.00499973117529812 -0.0015922877762925788 -2.0171662013622433e-05 0.010048388673708532 0.0031664747296304514 0.007361082826019387 0.001028962263345998 -0.003402075980450194 0.004650626319461349 -0.012732845866560353 0.009456999889838513 0.0037543124210853234 -0.004063861140504834 -0.006121084525442452 0.010716019963654837 -0.006703141736068822 -0.002506649469367307 0.0018848228593350363 -0.002546564115647087 0.0006774708584287925 0.0012534815921554174 -0.004645865725485607 -0.008833143418321851 -0.005566438426820872 -0.011974633233303 -0.004949841236488969 0.007283387396087099
also -0.025894799110637842 -0.013109936084022448 -0.004438457150441867 -0.006382155316265093 -0.004369084592421737 0.02479652244305622 0.021206636548901335 -0.02213058409245384 -0.014635854489766849 -0.014088816933626722 0.0018900337875448806 0.003293009244346474 0.023477060164274467 0.02002938721976064 -0.019845812831566327 -0.0005293092856658651 -0.027331525818872906 -0.02457088211836251 -0.00925771262074396 -0.02863289123687161 0.004013573577541445 0.0015874344102020674 -0.006196292848073652 -0.006888505161964772 0.005762512553659557 -0.008591530362484761 -0.010373209787023505 -0.012467350582081775 0.011992359677359808 0.02764949363535251 0.017200276072810137 0.03235322308706306 -0.018205154007648546 0.027575424131687006 -0.001057328459284184 -0.005335032485027481 0.011993487794692408 -0.009383459006561356 0.0052406577009895565 0.019519928745660827 -0.0014036035691662194 -0.01045995805524766 0.025964131989344632 0.026759524918008717 0.01232696749634448 0.026960534991636646 -0.004907323463305515 -0.015241332755027266 0.03027847937067187 0.032268143138281385 0.02071104250385107 0.011651048527599416 -0.020276920584083428 0.010279167901467798 -0.027981060775647996 0.024867711249382807 -0.019435256919339578 0.019972607739206453 -0.0028883121290264597 0.005666713809875181 0.015432468539614006 0.005665542909078335 0.025018916402412956 -0.029226656547951684 0.0055144090447910455 0.008292955169057184 -0.02059102014454727 -0.01073043045340579 -0.019915339213241564 -0.002727290769115982 -0.030569395322307232 0.012675869334258868 0.004169475033512932 -0.0005130274108622562 -0.0021199710445846147 0.0016964125110764342 0.02188292249610926 0.015643052795158534 0.008420202899942764 0.003037018812136796 -0.022949330542425747 0.03465260487983147 -0.030310513679915916 0.030926033924470214 0.011282019576382973 -0.007992485728275675 -0.017955555752082044 0.019958121696729475 -0.026897086047393468 -0.006916934474119183 0.003129993111459802 -0.005844801845854986 0.010630548591189459 -0.0006104487677952169 -0.021756513102022007 -0.01957200414122563 -0.026571454878892634 -0.031706946617017985 -0.017473123010269757 0.01549188577824893
be -0.024912799917050987 -0.016635548147279213 -0.0069894431565585636 -0.008584132013317994 -0.0014334445048350595 0.020159266269759942 0.012458653539189997 -0.016805826807885296 -0.012434356729663617 -0.0084519429821364 0.006291433188333632 0.007800506344993384 0.01656064890654982 0.015055635533879116 -0.018311472481344727 0.0018704939467638873 -0.028600891136177267 -0.02731505754921841 -0.009830128975376199 -0.023054173058304563 0.007282429991095068 0.0014534865434445295 -0.011647078548568125 0.0014548693536535558 0.008938069811728861 -0.005163576969861822 -0.008303344210230957 -0.010253228196516641 0.01061508918504576 0.01820010661498276 0.01795898284384955 0.026780867928149106 -0.021523252640867532 0.020182373999735295 -0.002486707272858033 -0.007635841556798326 0.009979655415713886 -0.009214317783476847 0.0015316608820643172 0.021515942758809366 0.000853651075683184 -0.010678809977296928 0.023910457506860792 0.022546005768192802 0.016256822923936192 0.021916879611347355 -0.008010118114385954 -0.008062250430557544 0.01978781776232255 0.03169385285499803 0.020147597636451915 0.009107746333135141 -0.01531547054561724 0.011484608406375975 -0.02541792945862773 0.023267696817499788 -0.009206420901493251 0.01906422434941151 0.0024866668864217396 0.0008463683556547216 0.014924990876229076 0.00428999669701134 0.023381527204663445 -0.027305422840506494 0.006371278862728444 0.010683348897881226 -0.01791262755018539 -0.007956130092797008 -0.023465553762809004 0.0005588785603878607 -0.029125375764265785 0.014785225919128193 0.008306494027282969 -0.0013853257965138345 -0.0045286200508586685 -0.0031739885492807077 0.02261865748125686 0.012272908875850752 0.010717810806749476 0.004229206661885629 -0.019103892545434955 0.02763813358071915 -0.0329279356471091 0.029046508193938836 0.006625476757042234 -0.013921570026456746 -0.012186779798659607 0.020893353476808957 -0.025266488898711588 -0.004510864273348916 0.008916913458633617 -0.002343295819570404 0.008692850925524707 0.008124798218352929 -0.020540409878871218 -0.020685072883330213 -0.02079862744506883 -0.023228589215894487 -0.00965311168890801 0.01764554033210463
China's -0.01552570576567216 -0.012623634840958903 0.00028076236160288364 -0.009263607127695866 0.0008269667085769641 0.017600359586931714 0.007816102376375093 -0.015440038907995647 -0.014219226940172521 -0.006994546053083046 0.001486814110375424 0.0014809152574879808 0.018128135943479944 0.011655926440699535 -0.015821064782708557 0.005881716811561787 -0.02581773538247072 -0.019913141687028926 -0.005506117089695046 -0.016409782109141846 -0.0001611037322266185 -0.0006912000712068494 -0.003166729718878945 -0.0031221105897516277 0.010686648123567783 -0.006968788788864077 -0.0032058906268868526 -0.010867837143631069 0.009583048475939685 0.018814242109700365 0.00782326353877057 0.02062958250550827 -0.01316429425934484 0.021893704501308613 -0.0007626390138590092 -0.002800562176584454 0.012594631506118111 -0.007697373965285973 0.0042071467156510325 0.017891879708264734 0.0015241888607133729 -0.007850298059497012 0.01732235552738849 0.013612888923390378 0.009360325708732067 0.015988545101757748 -0.0009524223064831656 -0.006554964350360841 0.022595666291654222 0.020351804440250563 0.017083599223364346 0.005386226168718988 -0.016495896171988756 0.01458471626665612 -0.017441367290085896 0.01959397415042011 -0.009930371998610419 0.015450946433525814 0.0017071779792304544 0.006198435339210411 0.005510386185535842 0.0012124942483465809 0.015388514938323241 -0.01574723948066489 -3.993095132454391e-05 0.007024094194477859 -0.01255407901826819 -0.013018262361584524 -0.014428058654590134 0.0061618109308345815 -0.02250632201139905 0.008091430907793656 0.005516070170693478 0.001954891470463279 -0.008621424223742687 0.003281177210178499 0.015028483807540854 0.0063405139517102695 0.007030492620714259 0.002833029821115881 -0.014156781232345775 0.026102394621249327 -0.023342266516849623 0.01622127259530098 0.0032002319469840164 -0.011520291057937221 -0.009308331986145299 0.01897133164855379 -0.02057340225697718 -0.005293360122002718 0.0006777569928004801 -0.003392854942335876 0.0093588732419547 0.00030921588870490204 -0.017064654788873968 -0.012775670856721039 -0.024067179234494265 -0.024886259310216527 -0.012887572992410286 0.010798126663040178
by -0.023596566575429682 -0.016140657237174963 0.0018934319401699565 -0.0036912582652224475 -0.007114563369999309 0.020192856986295502 0.012423957306924383 -0.016868614320282707 -0.010005748179894252 -0.013279620822341064 -0.0013463090136914624 0.005357466971802646 0.021132695505367498 0.016183417207155697 -0.017826398392816883 -0.0011383294486304524 -0.02818374679170028 -0.02352992096945003 -0.011298483489635329 -0.02479764365054559 0.002930586932734766 0.0019517270940317944 -0.010533467614423538 0.0024743399785297246 0.010969108937483301 -0.011236130868289194 -0.01221314212993811 -0.006257222985834849 0.01236447830614444 0.01781044657719988 0.00992795299273148 0.021502164712349572 -0.017694826079131615 0.01987232854578198 0.00016185255512347018 -0.005950382141348412 0.013611918567222244 -0.01084683859722128 0.0024796799259934814 0.018738204914067528 0.0008276684603827692 -0.008192271283466926 0.01973477296678212 0.02516693815646753 0.008738718352007858 0.02494505649143572 -0.0008313502025517985 -0.011621946379074405 0.01892121080196401 0.031472516764858655 0.021576349397358217 0.008074550364540276 -0.01696245398807863 0.007453498338912926 -0.019584152081486027 0.022060424734290953 -0.012782876505546055 0.015731820308412227 0.003941743440120786 0.0036699932972747338 0.014212763177266975 0.005722196966611832 0.025932176029775347 -0.022960719109847285 0.006336086978688197 0.015887561749033094 -0.015742498475568124 -0.014963741969828907 -0.01645335577083553 0.005413585144397428 -0.025997321700003354 0.006542502159650009 0.007762979589835434 -0.0013854618073826605 -0.009326314118767276 -0.0001881337310062721 0.022654840816965255 0.008090664156220067 0.012076047773675953 -0.002353166900592498 -0.015563145779121514 0.024161082194556722 -0.023520551496857722 0.02509599942286942 0.008997497592023696 -0.01567490804073008 -0.01905048393024784 0.018340247437832354 -0.02243612398967707 -0.0020063508624575117 0.009345231264795606 -0.004815736142875634 0.015113399450514145 -0.0012356030432785178 -0.020732314744412433 -0.018626304857336056 -0.02775299860313163 -0.028816338651792478 -0.009757432602994272 0.011331284785225514
more -0.016216131965172773 -0.009087831118022437 3.989177323716122e-05 -9.70029298828657e-05 -0.002270944821461692 0.017838690648974507 0.01233983376275542 -0.008305688127828609 -0.01371937057898758 -0.0035216501185331545 0.006099263568227536 0.0031119396826734514 0.010465213384975202 0.008239080446447743 -0.009648671334920728 0.005384293917764022 -0.0160366762548518 -0.0189131842006233 -0.004077750112040962 -0.01722234491817449 0.001032539696820016 0.002396769698853941 -0.002202129949063196 -0.003281387712640372 0.004955727074523651 -0.008372202795437716 -0.0033847987306504634 -0.004336699537899301 0.007538732799575898 0.015506072490488966 0.008855062589299351 0.01729019654869571 -0.010504082227868389 0.01586545390649335 -0.00018176659938357666 -0.005723043694426482 0.004198295371431814 -0.008512432477105775 -0.00043874342897902836 0.012028042002150106 0.0020103997677906136 -0.00973320913191169 0.013344372267072333 0.018259943870413103 0.005544985863462128 0.011789626088016005 -0.001171542591693268 -0.00835145152948357 0.017571620435753568 0.023622040140590037 0.01604291271126906 0.005102819381059758 -0.010889278264706405 0.01246349964296322 -0.0186189744831547 0.01581127728244982 -0.011957462858221002 0.008208826339163847 -0.0011854798956095248 0.002459145720857417 0.009555922992120512 0.007073906143762587 0.010695128320187477 -0.01242677075944514 -0.0017164106696599983 0.011738299126528042 -0.010901079512847307 -0.012820813990580803 -0.015006735705787089 0.0031519127243215673 -0.01979912704478087 0.006516062550395967 0.0009444726771880601 -0.00016702321585473898 0.000370335990191994 -0.0039437864121977815 0.016336564566725074 0.012822177523012181 0.0038769887395534294 -0.002730172482837012 -0.007953293111251526 0.024445961223851755 -0.014351720931528355 0.015070187896282883 0.006002853311739328 -0.009231891653742181 -0.011964581921733443 0.019403736780506203 -0.017569341363590323 0.0019480334444548976 0.0047676799034739046 -0.00720350800638486 0.012356941402169322 0.002964695391261343 -0.010610780904762055 -0.011042565619748734 -0.02095315488407934 -0.014792567385640682 -0.005369524150030386 0.008011056775722648
tensions -0.021622615258372405 -0.011335035117002625 0.0015950717379482548 -0.005042740932256788 -0.007760359161922627 0.017911169566638033 0.013010247516897439 -0.0211498341306717 -0.012326377461882781 -0.009274421664534556 0.0030643975827320674 0.005230182449425325 0.015530842310101435 0.01744896875375549 -0.015001166844093075 0.0003081843856587032 -0.027979342582314718 -0.019278036292590773 -0.006550423858528408 -0.018020876538766748 0.0036994551960887433 -0.00631655806588883 -0.005333005893967147 -0.006172539382490636 0.011408813132505644 -0.0027071778617172434 -0.006872536207975525 -0.007252711796471147 0.009935713963965365 0.02157162697556587 0.010178029883575638 0.022345309757242415 -0.016645549317630407 0.02263470035640165 0.0003818214999190972 -0.011195098308176782 0.01421881170678046 -0.008916622125838726 0.002378739537461357 0.022406974043842173 -0.00821549221462118 -0.015874740847269714 0.017214468667500763 0.0219836815666173 0.009448127846315973 0.01629693497576729 -0.006901837741692383 -0.010906523179869568 0.023983390607411927 0.02865660790409433 0.020868605755311485 0.0066883480393449945 -0.014389691882706848 0.014940473331680491 -0.024677841298414868 0.01759293441725986 -0.015895845550819496 0.01905213906676588 -0.00023374085473263872 0.0027405930006971584 0.016293099867087654 0.004855753840011007 0.024505556808867714 -0.019541608559712962 0.004594316362504666 0.0129476951054043 -0.015601038060412395 -0.014334450610155177 -0.021957367213651362 -0.0021919034136232 -0.027967595250474535 0.005374953728818185 0.004834226386479585 -0.007603746058735222 -0.0071876615714522845 -0.004266226608608043 0.021806952813961902 0.012925519612375263 0.003552152060068779 -0.003078915255384472 -0.015288161224267337 0.028570277902511546 -0.02331771114826024 0.02114593580448645 0.005875585675706756 -0.010130701945369027 -0.018868942278024877 0.017267662965132092 -0.021055969993379893 -0.000444988006251976 0.005290733198568654 -0.0026504909641531893 0.009930664151983416 0.004346915569492684 -0.019250504040341437 -0.02119030802507939 -0.02232804514251617 -0.022560423940226046 -0.011674964704181558 0.016957252962435106
